{
    "layer_sizes": [
        4,
        8,
        3
    ],
    "activation_funcs": [
        "sigmoid",
        "softmax"
    ],
    "weight_init": "xavier",
    "loss_function": "cce",
    "reg_type": "l2",
    "lambda_param": 0.01,
    "seed": 42,
    "weights": {
        "1": [
            [
                1.4424379102080336,
                -0.4016620882656586,
                1.8886838487325568,
                4.426261279957095,
                -0.6862596754163821,
                -0.6811207922651582,
                4.597668223349027,
                2.2350245341079207
            ],
            [
                -1.3670496484959302,
                1.5650191579497987,
                -1.3448023506804598,
                -1.3509001172003938,
                0.7109520246640745,
                -5.5702859023791245,
                -5.024161338110488,
                -1.6355881890670319
            ],
            [
                -2.950053210207999,
                0.9014793638867628,
                -2.650257908536315,
                -4.109378096305525,
                4.262054473405754,
                -0.6587722838412505,
                0.1927052307156553,
                -4.146510337624704
            ],
            [
                -1.5798421185643752,
                0.3173687168635255,
                -3.349322175566589,
                1.098027090439632,
                -1.7524719506210213,
                -0.8468397163636079,
                -1.7508068275758555,
                5.387619515311293
            ]
        ],
        "2": [
            [
                0.8397104872085092,
                -0.22097058050589063,
                1.1914776315467746
            ],
            [
                2.7298370047589833,
                -0.41589085689040456,
                -0.41628673535624816
            ],
            [
                2.7652498863352486,
                1.4217158036633675,
                -0.8096054697452404
            ],
            [
                0.9416940797386515,
                -0.8208843197977741,
                -0.8163475742272247
            ],
            [
                0.37074829977258456,
                -3.403365057803829,
                -3.07780073602587
            ],
            [
                -1.032691911289098,
                -1.8105106706479184,
                0.5746763093161501
            ],
            [
                -1.6806765259050096,
                -2.517670090838328,
                2.6606307863906578
            ],
            [
                -0.46202256292862987,
                0.1428037614836117,
                -2.5288661750666166
            ]
        ]
    },
    "biases": {
        "1": [
            [
                -0.04168538239524081,
                -3.1050308580685235,
                2.3830192028439003,
                -3.5661171782170924,
                0.5757277587952065,
                -5.709755978866922,
                -3.8628069813539816,
                0.5690986331231502
            ]
        ],
        "2": [
            [
                -1.0841758655222251,
                0.25089117857479853,
                -2.0231298645885736
            ]
        ]
    }
}